,T,Age,AgeTag,Sex,yo1,yo1CF,y1,y1CF,yo2,yo2CF,y2,y2CF,yo3,yo3CF,y3,y3CF
250,1.0,0.52,1.0,-1.0,-125.0,-5.0,-125.0,-5.0,-56.0,-126.0,-56.0,-126.0,42.8,-126.0,42.8,-126.0
424,-1.0,1.0,1.0,-1.0,-5.0,-125.0,-5.0,-125.0,-150.0,-80.0,-150.0,-80.0,-150.0,110.0,-150.0,110.0
237,-1.0,0.76,1.0,1.0,-65.0,195.0,-65.0,195.0,136.4,206.39999999999998,136.4,206.39999999999998,-8.0,206.39999999999998,-8.0,206.39999999999998
174,-1.0,1.0,1.0,1.0,-65.0,195.0,-65.0,195.0,170.0,240.0,170.0,240.0,-20.0,240.0,-20.0,240.0
388,-1.0,0.78,1.0,-1.0,-5.0,-125.0,-5.0,-125.0,-139.0,-69.0,-139.0,-69.0,-139.0,79.20000000000002,-139.0,79.20000000000002
307,1.0,0.66,1.0,-1.0,-125.0,-5.0,-125.0,-5.0,-63.0,-133.0,-63.0,-133.0,62.400000000000006,-133.0,62.400000000000006,-133.0
423,-1.0,0.98,1.0,-1.0,-5.0,-125.0,-5.0,-125.0,-149.0,-79.0,-149.0,-79.0,-149.0,107.19999999999999,-149.0,107.19999999999999
456,-1.0,0.64,1.0,-1.0,-5.0,-125.0,-5.0,-125.0,-132.0,-62.0,-132.0,-62.0,-132.0,59.60000000000001,-132.0,59.60000000000001
116,1.0,0.8400000000000001,1.0,1.0,195.0,-65.0,195.0,-65.0,217.60000000000002,147.60000000000002,217.60000000000002,147.60000000000002,217.60000000000002,-12.0,217.60000000000002,-12.0
182,-1.0,0.66,1.0,1.0,-65.0,195.0,-65.0,195.0,122.4,192.39999999999998,122.4,192.39999999999998,-3.0,192.39999999999998,-3.0,192.39999999999998
323,1.0,0.98,1.0,-1.0,-125.0,-5.0,-125.0,-5.0,-79.0,-149.0,-79.0,-149.0,107.19999999999999,-149.0,107.19999999999999,-149.0
4,1.0,0.6,1.0,1.0,195.0,-65.0,195.0,-65.0,184.0,114.0,184.0,114.0,184.0,0.0,184.0,0.0
66,1.0,0.8400000000000001,1.0,1.0,195.0,-65.0,195.0,-65.0,217.60000000000002,147.60000000000002,217.60000000000002,147.60000000000002,217.60000000000002,-12.0,217.60000000000002,-12.0
469,-1.0,0.9,1.0,-1.0,-5.0,-125.0,-5.0,-125.0,-145.0,-75.0,-145.0,-75.0,-145.0,96.0,-145.0,96.0
165,-1.0,0.8200000000000001,1.0,1.0,-65.0,195.0,-65.0,195.0,144.8,214.8,144.8,214.8,-11.0,214.8,-11.0,214.8
130,-1.0,0.62,1.0,1.0,-65.0,195.0,-65.0,195.0,116.8,186.8,116.8,186.8,-1.0,186.8,-1.0,186.8
364,1.0,0.8,1.0,-1.0,-125.0,-5.0,-125.0,-5.0,-70.0,-140.0,-70.0,-140.0,82.0,-140.0,82.0,-140.0
44,1.0,0.9,1.0,1.0,195.0,-65.0,195.0,-65.0,226.0,156.0,226.0,156.0,226.0,-15.0,226.0,-15.0
466,-1.0,0.8400000000000001,1.0,-1.0,-5.0,-125.0,-5.0,-125.0,-142.0,-72.0,-142.0,-72.0,-142.0,87.60000000000002,-142.0,87.60000000000002
0,1.0,0.52,1.0,1.0,195.0,-65.0,195.0,-65.0,172.8,102.80000000000001,172.8,102.80000000000001,172.8,4.000000000000007,172.8,4.000000000000007
117,1.0,0.86,1.0,1.0,195.0,-65.0,195.0,-65.0,220.39999999999998,150.4,220.39999999999998,150.4,220.39999999999998,-13.0,220.39999999999998,-13.0
422,-1.0,0.96,1.0,-1.0,-5.0,-125.0,-5.0,-125.0,-148.0,-78.0,-148.0,-78.0,-148.0,104.4,-148.0,104.4
8,1.0,0.6799999999999999,1.0,1.0,195.0,-65.0,195.0,-65.0,195.2,125.19999999999999,195.2,125.19999999999999,195.2,-4.0,195.2,-4.0
460,-1.0,0.72,1.0,-1.0,-5.0,-125.0,-5.0,-125.0,-136.0,-66.0,-136.0,-66.0,-136.0,70.79999999999998,-136.0,70.79999999999998
230,-1.0,0.62,1.0,1.0,-65.0,195.0,-65.0,195.0,116.8,186.8,116.8,186.8,-1.0,186.8,-1.0,186.8
342,1.0,0.86,1.0,-1.0,-125.0,-5.0,-125.0,-5.0,-73.0,-143.0,-73.0,-143.0,90.4,-143.0,90.4,-143.0
81,1.0,0.64,1.0,1.0,195.0,-65.0,195.0,-65.0,189.60000000000002,119.6,189.60000000000002,119.6,189.60000000000002,-2.000000000000007,189.60000000000002,-2.000000000000007
73,1.0,0.98,1.0,1.0,195.0,-65.0,195.0,-65.0,237.2,167.2,237.2,167.2,237.2,-19.0,237.2,-19.0
135,-1.0,0.72,1.0,1.0,-65.0,195.0,-65.0,195.0,130.79999999999998,200.8,130.79999999999998,200.8,-5.999999999999993,200.8,-5.999999999999993,200.8
475,-1.0,0.52,1.0,-1.0,-5.0,-125.0,-5.0,-125.0,-126.0,-56.0,-126.0,-56.0,-126.0,42.8,-126.0,42.8
151,-1.0,0.54,1.0,1.0,-65.0,195.0,-65.0,195.0,105.6,175.6,105.6,175.6,2.999999999999993,175.6,2.999999999999993,175.6
444,-1.0,0.9,1.0,-1.0,-5.0,-125.0,-5.0,-125.0,-145.0,-75.0,-145.0,-75.0,-145.0,96.0,-145.0,96.0
322,1.0,0.96,1.0,-1.0,-125.0,-5.0,-125.0,-5.0,-78.0,-148.0,-78.0,-148.0,104.4,-148.0,104.4,-148.0
90,1.0,0.8200000000000001,1.0,1.0,195.0,-65.0,195.0,-65.0,214.8,144.8,214.8,144.8,214.8,-11.0,214.8,-11.0
453,-1.0,0.58,1.0,-1.0,-5.0,-125.0,-5.0,-125.0,-129.0,-59.0,-129.0,-59.0,-129.0,51.19999999999999,-129.0,51.19999999999999
385,-1.0,0.72,1.0,-1.0,-5.0,-125.0,-5.0,-125.0,-136.0,-66.0,-136.0,-66.0,-136.0,70.79999999999998,-136.0,70.79999999999998
256,1.0,0.64,1.0,-1.0,-125.0,-5.0,-125.0,-5.0,-62.0,-132.0,-62.0,-132.0,59.60000000000001,-132.0,59.60000000000001,-132.0
28,1.0,0.58,1.0,1.0,195.0,-65.0,195.0,-65.0,181.2,111.19999999999999,181.2,111.19999999999999,181.2,1.0,181.2,1.0
148,-1.0,0.98,1.0,1.0,-65.0,195.0,-65.0,195.0,167.2,237.2,167.2,237.2,-19.0,237.2,-19.0,237.2
146,-1.0,0.94,1.0,1.0,-65.0,195.0,-65.0,195.0,161.6,231.60000000000002,161.6,231.60000000000002,-17.0,231.60000000000002,-17.0,231.60000000000002
425,-1.0,0.52,1.0,-1.0,-5.0,-125.0,-5.0,-125.0,-126.0,-56.0,-126.0,-56.0,-126.0,42.8,-126.0,42.8
410,-1.0,0.72,1.0,-1.0,-5.0,-125.0,-5.0,-125.0,-136.0,-66.0,-136.0,-66.0,-136.0,70.79999999999998,-136.0,70.79999999999998
366,1.0,0.8400000000000001,1.0,-1.0,-125.0,-5.0,-125.0,-5.0,-72.0,-142.0,-72.0,-142.0,87.60000000000002,-142.0,87.60000000000002,-142.0
404,-1.0,0.6,1.0,-1.0,-5.0,-125.0,-5.0,-125.0,-130.0,-60.0,-130.0,-60.0,-130.0,54.0,-130.0,54.0
448,-1.0,0.98,1.0,-1.0,-5.0,-125.0,-5.0,-125.0,-149.0,-79.0,-149.0,-79.0,-149.0,107.19999999999999,-149.0,107.19999999999999
355,1.0,0.62,1.0,-1.0,-125.0,-5.0,-125.0,-5.0,-61.0,-131.0,-61.0,-131.0,56.8,-131.0,56.8,-131.0
417,-1.0,0.86,1.0,-1.0,-5.0,-125.0,-5.0,-125.0,-143.0,-73.0,-143.0,-73.0,-143.0,90.4,-143.0,90.4
416,-1.0,0.8400000000000001,1.0,-1.0,-5.0,-125.0,-5.0,-125.0,-142.0,-72.0,-142.0,-72.0,-142.0,87.60000000000002,-142.0,87.60000000000002
178,-1.0,0.58,1.0,1.0,-65.0,195.0,-65.0,195.0,111.19999999999999,181.2,111.19999999999999,181.2,1.0,181.2,1.0,181.2
22,1.0,0.96,1.0,1.0,195.0,-65.0,195.0,-65.0,234.39999999999998,164.39999999999998,234.39999999999998,164.39999999999998,234.39999999999998,-18.000000000000014,234.39999999999998,-18.000000000000014
386,-1.0,0.74,1.0,-1.0,-5.0,-125.0,-5.0,-125.0,-137.0,-67.0,-137.0,-67.0,-137.0,73.6,-137.0,73.6
30,1.0,0.62,1.0,1.0,195.0,-65.0,195.0,-65.0,186.8,116.8,186.8,116.8,186.8,-1.0,186.8,-1.0
353,1.0,0.58,1.0,-1.0,-125.0,-5.0,-125.0,-5.0,-59.0,-129.0,-59.0,-129.0,51.19999999999999,-129.0,51.19999999999999,-129.0
212,-1.0,0.76,1.0,1.0,-65.0,195.0,-65.0,195.0,136.4,206.39999999999998,136.4,206.39999999999998,-8.0,206.39999999999998,-8.0,206.39999999999998
82,1.0,0.66,1.0,1.0,195.0,-65.0,195.0,-65.0,192.39999999999998,122.4,192.39999999999998,122.4,192.39999999999998,-3.0,192.39999999999998,-3.0
132,-1.0,0.66,1.0,1.0,-65.0,195.0,-65.0,195.0,122.4,192.39999999999998,122.4,192.39999999999998,-3.0,192.39999999999998,-3.0,192.39999999999998
223,-1.0,0.98,1.0,1.0,-65.0,195.0,-65.0,195.0,167.2,237.2,167.2,237.2,-19.0,237.2,-19.0,237.2
211,-1.0,0.74,1.0,1.0,-65.0,195.0,-65.0,195.0,133.6,203.60000000000002,133.6,203.60000000000002,-7.0,203.60000000000002,-7.0,203.60000000000002
215,-1.0,0.8200000000000001,1.0,1.0,-65.0,195.0,-65.0,195.0,144.8,214.8,144.8,214.8,-11.0,214.8,-11.0,214.8
69,1.0,0.9,1.0,1.0,195.0,-65.0,195.0,-65.0,226.0,156.0,226.0,156.0,226.0,-15.0,226.0,-15.0
173,-1.0,0.98,1.0,1.0,-65.0,195.0,-65.0,195.0,167.2,237.2,167.2,237.2,-19.0,237.2,-19.0,237.2
413,-1.0,0.78,1.0,-1.0,-5.0,-125.0,-5.0,-125.0,-139.0,-69.0,-139.0,-69.0,-139.0,79.20000000000002,-139.0,79.20000000000002
308,1.0,0.6799999999999999,1.0,-1.0,-125.0,-5.0,-125.0,-5.0,-64.0,-134.0,-64.0,-134.0,65.19999999999999,-134.0,65.19999999999999,-134.0
125,-1.0,0.52,1.0,1.0,-65.0,195.0,-65.0,195.0,102.80000000000001,172.8,102.80000000000001,172.8,4.000000000000007,172.8,4.000000000000007,172.8
108,1.0,0.6799999999999999,1.0,1.0,195.0,-65.0,195.0,-65.0,195.2,125.19999999999999,195.2,125.19999999999999,195.2,-4.0,195.2,-4.0
370,1.0,0.9199999999999999,1.0,-1.0,-125.0,-5.0,-125.0,-5.0,-76.0,-146.0,-76.0,-146.0,98.79999999999998,-146.0,98.79999999999998,-146.0
6,1.0,0.64,1.0,1.0,195.0,-65.0,195.0,-65.0,189.60000000000002,119.6,189.60000000000002,119.6,189.60000000000002,-2.000000000000007,189.60000000000002,-2.000000000000007
251,1.0,0.54,1.0,-1.0,-125.0,-5.0,-125.0,-5.0,-57.0,-127.0,-57.0,-127.0,45.60000000000001,-127.0,45.60000000000001,-127.0
257,1.0,0.66,1.0,-1.0,-125.0,-5.0,-125.0,-5.0,-63.0,-133.0,-63.0,-133.0,62.400000000000006,-133.0,62.400000000000006,-133.0
479,-1.0,0.6,1.0,-1.0,-5.0,-125.0,-5.0,-125.0,-130.0,-60.0,-130.0,-60.0,-130.0,54.0,-130.0,54.0
258,1.0,0.6799999999999999,1.0,-1.0,-125.0,-5.0,-125.0,-5.0,-64.0,-134.0,-64.0,-134.0,65.19999999999999,-134.0,65.19999999999999,-134.0
87,1.0,0.76,1.0,1.0,195.0,-65.0,195.0,-65.0,206.39999999999998,136.4,206.39999999999998,136.4,206.39999999999998,-8.0,206.39999999999998,-8.0
283,1.0,0.6799999999999999,1.0,-1.0,-125.0,-5.0,-125.0,-5.0,-64.0,-134.0,-64.0,-134.0,65.19999999999999,-134.0,65.19999999999999,-134.0
222,-1.0,0.96,1.0,1.0,-65.0,195.0,-65.0,195.0,164.39999999999998,234.39999999999998,164.39999999999998,234.39999999999998,-18.000000000000014,234.39999999999998,-18.000000000000014,234.39999999999998
101,1.0,0.54,1.0,1.0,195.0,-65.0,195.0,-65.0,175.6,105.6,175.6,105.6,175.6,2.999999999999993,175.6,2.999999999999993
286,1.0,0.74,1.0,-1.0,-125.0,-5.0,-125.0,-5.0,-67.0,-137.0,-67.0,-137.0,73.6,-137.0,73.6,-137.0
446,-1.0,0.94,1.0,-1.0,-5.0,-125.0,-5.0,-125.0,-147.0,-77.0,-147.0,-77.0,-147.0,101.6,-147.0,101.6
149,-1.0,1.0,1.0,1.0,-65.0,195.0,-65.0,195.0,170.0,240.0,170.0,240.0,-20.0,240.0,-20.0,240.0
93,1.0,0.88,1.0,1.0,195.0,-65.0,195.0,-65.0,223.2,153.2,223.2,153.2,223.2,-14.0,223.2,-14.0
412,-1.0,0.76,1.0,-1.0,-5.0,-125.0,-5.0,-125.0,-138.0,-68.0,-138.0,-68.0,-138.0,76.4,-138.0,76.4
312,1.0,0.76,1.0,-1.0,-125.0,-5.0,-125.0,-5.0,-68.0,-138.0,-68.0,-138.0,76.4,-138.0,76.4,-138.0
236,-1.0,0.74,1.0,1.0,-65.0,195.0,-65.0,195.0,133.6,203.60000000000002,133.6,203.60000000000002,-7.0,203.60000000000002,-7.0,203.60000000000002
324,1.0,1.0,1.0,-1.0,-125.0,-5.0,-125.0,-5.0,-80.0,-150.0,-80.0,-150.0,110.0,-150.0,110.0,-150.0
179,-1.0,0.6,1.0,1.0,-65.0,195.0,-65.0,195.0,114.0,184.0,114.0,184.0,0.0,184.0,0.0,184.0
395,-1.0,0.9199999999999999,1.0,-1.0,-5.0,-125.0,-5.0,-125.0,-146.0,-76.0,-146.0,-76.0,-146.0,98.79999999999998,-146.0,98.79999999999998
403,-1.0,0.58,1.0,-1.0,-5.0,-125.0,-5.0,-125.0,-129.0,-59.0,-129.0,-59.0,-129.0,51.19999999999999,-129.0,51.19999999999999
213,-1.0,0.78,1.0,1.0,-65.0,195.0,-65.0,195.0,139.2,209.2,139.2,209.2,-9.000000000000014,209.2,-9.000000000000014,209.2
91,1.0,0.8400000000000001,1.0,1.0,195.0,-65.0,195.0,-65.0,217.60000000000002,147.60000000000002,217.60000000000002,147.60000000000002,217.60000000000002,-12.0,217.60000000000002,-12.0
75,1.0,0.52,1.0,1.0,195.0,-65.0,195.0,-65.0,172.8,102.80000000000001,172.8,102.80000000000001,172.8,4.000000000000007,172.8,4.000000000000007
368,1.0,0.88,1.0,-1.0,-125.0,-5.0,-125.0,-5.0,-74.0,-144.0,-74.0,-144.0,93.19999999999999,-144.0,93.19999999999999,-144.0
25,1.0,0.52,1.0,1.0,195.0,-65.0,195.0,-65.0,172.8,102.80000000000001,172.8,102.80000000000001,172.8,4.000000000000007,172.8,4.000000000000007
260,1.0,0.72,1.0,-1.0,-125.0,-5.0,-125.0,-5.0,-66.0,-136.0,-66.0,-136.0,70.79999999999998,-136.0,70.79999999999998,-136.0
330,1.0,0.62,1.0,-1.0,-125.0,-5.0,-125.0,-5.0,-61.0,-131.0,-61.0,-131.0,56.8,-131.0,56.8,-131.0
420,-1.0,0.9199999999999999,1.0,-1.0,-5.0,-125.0,-5.0,-125.0,-146.0,-76.0,-146.0,-76.0,-146.0,98.79999999999998,-146.0,98.79999999999998
95,1.0,0.9199999999999999,1.0,1.0,195.0,-65.0,195.0,-65.0,228.8,158.8,228.8,158.8,228.8,-15.999999999999986,228.8,-15.999999999999986
306,1.0,0.64,1.0,-1.0,-125.0,-5.0,-125.0,-5.0,-62.0,-132.0,-62.0,-132.0,59.60000000000001,-132.0,59.60000000000001,-132.0
34,1.0,0.7,1.0,1.0,195.0,-65.0,195.0,-65.0,198.0,128.0,198.0,128.0,198.0,-5.0,198.0,-5.0
14,1.0,0.8,1.0,1.0,195.0,-65.0,195.0,-65.0,212.0,142.0,212.0,142.0,212.0,-10.0,212.0,-10.0
281,1.0,0.64,1.0,-1.0,-125.0,-5.0,-125.0,-5.0,-62.0,-132.0,-62.0,-132.0,59.60000000000001,-132.0,59.60000000000001,-132.0
340,1.0,0.8200000000000001,1.0,-1.0,-125.0,-5.0,-125.0,-5.0,-71.0,-141.0,-71.0,-141.0,84.80000000000001,-141.0,84.80000000000001,-141.0
440,-1.0,0.8200000000000001,1.0,-1.0,-5.0,-125.0,-5.0,-125.0,-141.0,-71.0,-141.0,-71.0,-141.0,84.80000000000001,-141.0,84.80000000000001
109,1.0,0.7,1.0,1.0,195.0,-65.0,195.0,-65.0,198.0,128.0,198.0,128.0,198.0,-5.0,198.0,-5.0
127,-1.0,0.56,1.0,1.0,-65.0,195.0,-65.0,195.0,108.4,178.4,108.4,178.4,2.0,178.4,2.0,178.4
326,1.0,0.54,1.0,-1.0,-125.0,-5.0,-125.0,-5.0,-57.0,-127.0,-57.0,-127.0,45.60000000000001,-127.0,45.60000000000001,-127.0
155,-1.0,0.62,1.0,1.0,-65.0,195.0,-65.0,195.0,116.8,186.8,116.8,186.8,-1.0,186.8,-1.0,186.8
147,-1.0,0.96,1.0,1.0,-65.0,195.0,-65.0,195.0,164.39999999999998,234.39999999999998,164.39999999999998,234.39999999999998,-18.000000000000014,234.39999999999998,-18.000000000000014,234.39999999999998
76,1.0,0.54,1.0,1.0,195.0,-65.0,195.0,-65.0,175.6,105.6,175.6,105.6,175.6,2.999999999999993,175.6,2.999999999999993
55,1.0,0.62,1.0,1.0,195.0,-65.0,195.0,-65.0,186.8,116.8,186.8,116.8,186.8,-1.0,186.8,-1.0
49,1.0,1.0,1.0,1.0,195.0,-65.0,195.0,-65.0,240.0,170.0,240.0,170.0,240.0,-20.0,240.0,-20.0
375,-1.0,0.52,1.0,-1.0,-5.0,-125.0,-5.0,-125.0,-126.0,-56.0,-126.0,-56.0,-126.0,42.8,-126.0,42.8
210,-1.0,0.72,1.0,1.0,-65.0,195.0,-65.0,195.0,130.79999999999998,200.8,130.79999999999998,200.8,-5.999999999999993,200.8,-5.999999999999993,200.8
493,-1.0,0.88,1.0,-1.0,-5.0,-125.0,-5.0,-125.0,-144.0,-74.0,-144.0,-74.0,-144.0,93.19999999999999,-144.0,93.19999999999999
106,1.0,0.64,1.0,1.0,195.0,-65.0,195.0,-65.0,189.60000000000002,119.6,189.60000000000002,119.6,189.60000000000002,-2.000000000000007,189.60000000000002,-2.000000000000007
252,1.0,0.56,1.0,-1.0,-125.0,-5.0,-125.0,-5.0,-58.0,-128.0,-58.0,-128.0,48.400000000000006,-128.0,48.400000000000006,-128.0
296,1.0,0.94,1.0,-1.0,-125.0,-5.0,-125.0,-5.0,-77.0,-147.0,-77.0,-147.0,101.6,-147.0,101.6,-147.0
217,-1.0,0.86,1.0,1.0,-65.0,195.0,-65.0,195.0,150.4,220.39999999999998,150.4,220.39999999999998,-13.0,220.39999999999998,-13.0,220.39999999999998
78,1.0,0.58,1.0,1.0,195.0,-65.0,195.0,-65.0,181.2,111.19999999999999,181.2,111.19999999999999,181.2,1.0,181.2,1.0
362,1.0,0.76,1.0,-1.0,-125.0,-5.0,-125.0,-5.0,-68.0,-138.0,-68.0,-138.0,76.4,-138.0,76.4,-138.0
133,-1.0,0.6799999999999999,1.0,1.0,-65.0,195.0,-65.0,195.0,125.19999999999999,195.2,125.19999999999999,195.2,-4.0,195.2,-4.0,195.2
232,-1.0,0.66,1.0,1.0,-65.0,195.0,-65.0,195.0,122.4,192.39999999999998,122.4,192.39999999999998,-3.0,192.39999999999998,-3.0,192.39999999999998
303,1.0,0.58,1.0,-1.0,-125.0,-5.0,-125.0,-5.0,-59.0,-129.0,-59.0,-129.0,51.19999999999999,-129.0,51.19999999999999,-129.0
437,-1.0,0.76,1.0,-1.0,-5.0,-125.0,-5.0,-125.0,-138.0,-68.0,-138.0,-68.0,-138.0,76.4,-138.0,76.4
143,-1.0,0.88,1.0,1.0,-65.0,195.0,-65.0,195.0,153.2,223.2,153.2,223.2,-14.0,223.2,-14.0,223.2
311,1.0,0.74,1.0,-1.0,-125.0,-5.0,-125.0,-5.0,-67.0,-137.0,-67.0,-137.0,73.6,-137.0,73.6,-137.0
247,-1.0,0.96,1.0,1.0,-65.0,195.0,-65.0,195.0,164.39999999999998,234.39999999999998,164.39999999999998,234.39999999999998,-18.000000000000014,234.39999999999998,-18.000000000000014,234.39999999999998
253,1.0,0.58,1.0,-1.0,-125.0,-5.0,-125.0,-5.0,-59.0,-129.0,-59.0,-129.0,51.19999999999999,-129.0,51.19999999999999,-129.0
391,-1.0,0.8400000000000001,1.0,-1.0,-5.0,-125.0,-5.0,-125.0,-142.0,-72.0,-142.0,-72.0,-142.0,87.60000000000002,-142.0,87.60000000000002
192,-1.0,0.86,1.0,1.0,-65.0,195.0,-65.0,195.0,150.4,220.39999999999998,150.4,220.39999999999998,-13.0,220.39999999999998,-13.0,220.39999999999998
334,1.0,0.7,1.0,-1.0,-125.0,-5.0,-125.0,-5.0,-65.0,-135.0,-65.0,-135.0,68.0,-135.0,68.0,-135.0
301,1.0,0.54,1.0,-1.0,-125.0,-5.0,-125.0,-5.0,-57.0,-127.0,-57.0,-127.0,45.60000000000001,-127.0,45.60000000000001,-127.0
157,-1.0,0.66,1.0,1.0,-65.0,195.0,-65.0,195.0,122.4,192.39999999999998,122.4,192.39999999999998,-3.0,192.39999999999998,-3.0,192.39999999999998
112,1.0,0.76,1.0,1.0,195.0,-65.0,195.0,-65.0,206.39999999999998,136.4,206.39999999999998,136.4,206.39999999999998,-8.0,206.39999999999998,-8.0
280,1.0,0.62,1.0,-1.0,-125.0,-5.0,-125.0,-5.0,-61.0,-131.0,-61.0,-131.0,56.8,-131.0,56.8,-131.0
261,1.0,0.74,1.0,-1.0,-125.0,-5.0,-125.0,-5.0,-67.0,-137.0,-67.0,-137.0,73.6,-137.0,73.6,-137.0
104,1.0,0.6,1.0,1.0,195.0,-65.0,195.0,-65.0,184.0,114.0,184.0,114.0,184.0,0.0,184.0,0.0
314,1.0,0.8,1.0,-1.0,-125.0,-5.0,-125.0,-5.0,-70.0,-140.0,-70.0,-140.0,82.0,-140.0,82.0,-140.0
216,-1.0,0.8400000000000001,1.0,1.0,-65.0,195.0,-65.0,195.0,147.60000000000002,217.60000000000002,147.60000000000002,217.60000000000002,-12.0,217.60000000000002,-12.0,217.60000000000002
131,-1.0,0.64,1.0,1.0,-65.0,195.0,-65.0,195.0,119.6,189.60000000000002,119.6,189.60000000000002,-2.000000000000007,189.60000000000002,-2.000000000000007,189.60000000000002
474,-1.0,1.0,1.0,-1.0,-5.0,-125.0,-5.0,-125.0,-150.0,-80.0,-150.0,-80.0,-150.0,110.0,-150.0,110.0
175,-1.0,0.52,1.0,1.0,-65.0,195.0,-65.0,195.0,102.80000000000001,172.8,102.80000000000001,172.8,4.000000000000007,172.8,4.000000000000007,172.8
196,-1.0,0.94,1.0,1.0,-65.0,195.0,-65.0,195.0,161.6,231.60000000000002,161.6,231.60000000000002,-17.0,231.60000000000002,-17.0,231.60000000000002
18,1.0,0.88,1.0,1.0,195.0,-65.0,195.0,-65.0,223.2,153.2,223.2,153.2,223.2,-14.0,223.2,-14.0
86,1.0,0.74,1.0,1.0,195.0,-65.0,195.0,-65.0,203.60000000000002,133.6,203.60000000000002,133.6,203.60000000000002,-7.0,203.60000000000002,-7.0
489,-1.0,0.8,1.0,-1.0,-5.0,-125.0,-5.0,-125.0,-140.0,-70.0,-140.0,-70.0,-140.0,82.0,-140.0,82.0
243,-1.0,0.88,1.0,1.0,-65.0,195.0,-65.0,195.0,153.2,223.2,153.2,223.2,-14.0,223.2,-14.0,223.2
428,-1.0,0.58,1.0,-1.0,-5.0,-125.0,-5.0,-125.0,-129.0,-59.0,-129.0,-59.0,-129.0,51.19999999999999,-129.0,51.19999999999999
344,1.0,0.9,1.0,-1.0,-125.0,-5.0,-125.0,-5.0,-75.0,-145.0,-75.0,-145.0,96.0,-145.0,96.0,-145.0
351,1.0,0.54,1.0,-1.0,-125.0,-5.0,-125.0,-5.0,-57.0,-127.0,-57.0,-127.0,45.60000000000001,-127.0,45.60000000000001,-127.0
275,1.0,0.52,1.0,-1.0,-125.0,-5.0,-125.0,-5.0,-56.0,-126.0,-56.0,-126.0,42.8,-126.0,42.8,-126.0
88,1.0,0.78,1.0,1.0,195.0,-65.0,195.0,-65.0,209.2,139.2,209.2,139.2,209.2,-9.000000000000014,209.2,-9.000000000000014
62,1.0,0.76,1.0,1.0,195.0,-65.0,195.0,-65.0,206.39999999999998,136.4,206.39999999999998,136.4,206.39999999999998,-8.0,206.39999999999998,-8.0
468,-1.0,0.88,1.0,-1.0,-5.0,-125.0,-5.0,-125.0,-144.0,-74.0,-144.0,-74.0,-144.0,93.19999999999999,-144.0,93.19999999999999
187,-1.0,0.76,1.0,1.0,-65.0,195.0,-65.0,195.0,136.4,206.39999999999998,136.4,206.39999999999998,-8.0,206.39999999999998,-8.0,206.39999999999998
119,1.0,0.9,1.0,1.0,195.0,-65.0,195.0,-65.0,226.0,156.0,226.0,156.0,226.0,-15.0,226.0,-15.0
128,-1.0,0.58,1.0,1.0,-65.0,195.0,-65.0,195.0,111.19999999999999,181.2,111.19999999999999,181.2,1.0,181.2,1.0,181.2
445,-1.0,0.9199999999999999,1.0,-1.0,-5.0,-125.0,-5.0,-125.0,-146.0,-76.0,-146.0,-76.0,-146.0,98.79999999999998,-146.0,98.79999999999998
180,-1.0,0.62,1.0,1.0,-65.0,195.0,-65.0,195.0,116.8,186.8,116.8,186.8,-1.0,186.8,-1.0,186.8
162,-1.0,0.76,1.0,1.0,-65.0,195.0,-65.0,195.0,136.4,206.39999999999998,136.4,206.39999999999998,-8.0,206.39999999999998,-8.0,206.39999999999998
241,-1.0,0.8400000000000001,1.0,1.0,-65.0,195.0,-65.0,195.0,147.60000000000002,217.60000000000002,147.60000000000002,217.60000000000002,-12.0,217.60000000000002,-12.0,217.60000000000002
465,-1.0,0.8200000000000001,1.0,-1.0,-5.0,-125.0,-5.0,-125.0,-141.0,-71.0,-141.0,-71.0,-141.0,84.80000000000001,-141.0,84.80000000000001
203,-1.0,0.58,1.0,1.0,-65.0,195.0,-65.0,195.0,111.19999999999999,181.2,111.19999999999999,181.2,1.0,181.2,1.0,181.2
204,-1.0,0.6,1.0,1.0,-65.0,195.0,-65.0,195.0,114.0,184.0,114.0,184.0,0.0,184.0,0.0,184.0
486,-1.0,0.74,1.0,-1.0,-5.0,-125.0,-5.0,-125.0,-137.0,-67.0,-137.0,-67.0,-137.0,73.6,-137.0,73.6
285,1.0,0.72,1.0,-1.0,-125.0,-5.0,-125.0,-5.0,-66.0,-136.0,-66.0,-136.0,70.79999999999998,-136.0,70.79999999999998,-136.0
352,1.0,0.56,1.0,-1.0,-125.0,-5.0,-125.0,-5.0,-58.0,-128.0,-58.0,-128.0,48.400000000000006,-128.0,48.400000000000006,-128.0
191,-1.0,0.8400000000000001,1.0,1.0,-65.0,195.0,-65.0,195.0,147.60000000000002,217.60000000000002,147.60000000000002,217.60000000000002,-12.0,217.60000000000002,-12.0,217.60000000000002
400,-1.0,0.52,1.0,-1.0,-5.0,-125.0,-5.0,-125.0,-126.0,-56.0,-126.0,-56.0,-126.0,42.8,-126.0,42.8
317,1.0,0.86,1.0,-1.0,-125.0,-5.0,-125.0,-5.0,-73.0,-143.0,-73.0,-143.0,90.4,-143.0,90.4,-143.0
161,-1.0,0.74,1.0,1.0,-65.0,195.0,-65.0,195.0,133.6,203.60000000000002,133.6,203.60000000000002,-7.0,203.60000000000002,-7.0,203.60000000000002
387,-1.0,0.76,1.0,-1.0,-5.0,-125.0,-5.0,-125.0,-138.0,-68.0,-138.0,-68.0,-138.0,76.4,-138.0,76.4
341,1.0,0.8400000000000001,1.0,-1.0,-125.0,-5.0,-125.0,-5.0,-72.0,-142.0,-72.0,-142.0,87.60000000000002,-142.0,87.60000000000002,-142.0
467,-1.0,0.86,1.0,-1.0,-5.0,-125.0,-5.0,-125.0,-143.0,-73.0,-143.0,-73.0,-143.0,90.4,-143.0,90.4
459,-1.0,0.7,1.0,-1.0,-5.0,-125.0,-5.0,-125.0,-135.0,-65.0,-135.0,-65.0,-135.0,68.0,-135.0,68.0
142,-1.0,0.86,1.0,1.0,-65.0,195.0,-65.0,195.0,150.4,220.39999999999998,150.4,220.39999999999998,-13.0,220.39999999999998,-13.0,220.39999999999998
72,1.0,0.96,1.0,1.0,195.0,-65.0,195.0,-65.0,234.39999999999998,164.39999999999998,234.39999999999998,164.39999999999998,234.39999999999998,-18.000000000000014,234.39999999999998,-18.000000000000014
414,-1.0,0.8,1.0,-1.0,-5.0,-125.0,-5.0,-125.0,-140.0,-70.0,-140.0,-70.0,-140.0,82.0,-140.0,82.0
271,1.0,0.94,1.0,-1.0,-125.0,-5.0,-125.0,-5.0,-77.0,-147.0,-77.0,-147.0,101.6,-147.0,101.6,-147.0
452,-1.0,0.56,1.0,-1.0,-5.0,-125.0,-5.0,-125.0,-128.0,-58.0,-128.0,-58.0,-128.0,48.400000000000006,-128.0,48.400000000000006
134,-1.0,0.7,1.0,1.0,-65.0,195.0,-65.0,195.0,128.0,198.0,128.0,198.0,-5.0,198.0,-5.0,198.0
52,1.0,0.56,1.0,1.0,195.0,-65.0,195.0,-65.0,178.4,108.4,178.4,108.4,178.4,2.0,178.4,2.0
138,-1.0,0.78,1.0,1.0,-65.0,195.0,-65.0,195.0,139.2,209.2,139.2,209.2,-9.000000000000014,209.2,-9.000000000000014,209.2
482,-1.0,0.66,1.0,-1.0,-5.0,-125.0,-5.0,-125.0,-133.0,-63.0,-133.0,-63.0,-133.0,62.400000000000006,-133.0,62.400000000000006
255,1.0,0.62,1.0,-1.0,-125.0,-5.0,-125.0,-5.0,-61.0,-131.0,-61.0,-131.0,56.8,-131.0,56.8,-131.0
450,-1.0,0.52,1.0,-1.0,-5.0,-125.0,-5.0,-125.0,-126.0,-56.0,-126.0,-56.0,-126.0,42.8,-126.0,42.8
485,-1.0,0.72,1.0,-1.0,-5.0,-125.0,-5.0,-125.0,-136.0,-66.0,-136.0,-66.0,-136.0,70.79999999999998,-136.0,70.79999999999998
61,1.0,0.74,1.0,1.0,195.0,-65.0,195.0,-65.0,203.60000000000002,133.6,203.60000000000002,133.6,203.60000000000002,-7.0,203.60000000000002,-7.0
432,-1.0,0.66,1.0,-1.0,-5.0,-125.0,-5.0,-125.0,-133.0,-63.0,-133.0,-63.0,-133.0,62.400000000000006,-133.0,62.400000000000006
136,-1.0,0.74,1.0,1.0,-65.0,195.0,-65.0,195.0,133.6,203.60000000000002,133.6,203.60000000000002,-7.0,203.60000000000002,-7.0,203.60000000000002
39,1.0,0.8,1.0,1.0,195.0,-65.0,195.0,-65.0,212.0,142.0,212.0,142.0,212.0,-10.0,212.0,-10.0
156,-1.0,0.64,1.0,1.0,-65.0,195.0,-65.0,195.0,119.6,189.60000000000002,119.6,189.60000000000002,-2.000000000000007,189.60000000000002,-2.000000000000007,189.60000000000002
269,1.0,0.9,1.0,-1.0,-125.0,-5.0,-125.0,-5.0,-75.0,-145.0,-75.0,-145.0,96.0,-145.0,96.0,-145.0
244,-1.0,0.9,1.0,1.0,-65.0,195.0,-65.0,195.0,156.0,226.0,156.0,226.0,-15.0,226.0,-15.0,226.0
100,1.0,0.52,1.0,1.0,195.0,-65.0,195.0,-65.0,172.8,102.80000000000001,172.8,102.80000000000001,172.8,4.000000000000007,172.8,4.000000000000007
299,1.0,1.0,1.0,-1.0,-125.0,-5.0,-125.0,-5.0,-80.0,-150.0,-80.0,-150.0,110.0,-150.0,110.0,-150.0
51,1.0,0.54,1.0,1.0,195.0,-65.0,195.0,-65.0,175.6,105.6,175.6,105.6,175.6,2.999999999999993,175.6,2.999999999999993
38,1.0,0.78,1.0,1.0,195.0,-65.0,195.0,-65.0,209.2,139.2,209.2,139.2,209.2,-9.000000000000014,209.2,-9.000000000000014
454,-1.0,0.6,1.0,-1.0,-5.0,-125.0,-5.0,-125.0,-130.0,-60.0,-130.0,-60.0,-130.0,54.0,-130.0,54.0
126,-1.0,0.54,1.0,1.0,-65.0,195.0,-65.0,195.0,105.6,175.6,105.6,175.6,2.999999999999993,175.6,2.999999999999993,175.6
163,-1.0,0.78,1.0,1.0,-65.0,195.0,-65.0,195.0,139.2,209.2,139.2,209.2,-9.000000000000014,209.2,-9.000000000000014,209.2
399,-1.0,1.0,1.0,-1.0,-5.0,-125.0,-5.0,-125.0,-150.0,-80.0,-150.0,-80.0,-150.0,110.0,-150.0,110.0
293,1.0,0.88,1.0,-1.0,-125.0,-5.0,-125.0,-5.0,-74.0,-144.0,-74.0,-144.0,93.19999999999999,-144.0,93.19999999999999,-144.0
99,1.0,1.0,1.0,1.0,195.0,-65.0,195.0,-65.0,240.0,170.0,240.0,170.0,240.0,-20.0,240.0,-20.0
277,1.0,0.56,1.0,-1.0,-125.0,-5.0,-125.0,-5.0,-58.0,-128.0,-58.0,-128.0,48.400000000000006,-128.0,48.400000000000006,-128.0
439,-1.0,0.8,1.0,-1.0,-5.0,-125.0,-5.0,-125.0,-140.0,-70.0,-140.0,-70.0,-140.0,82.0,-140.0,82.0
80,1.0,0.62,1.0,1.0,195.0,-65.0,195.0,-65.0,186.8,116.8,186.8,116.8,186.8,-1.0,186.8,-1.0
291,1.0,0.8400000000000001,1.0,-1.0,-125.0,-5.0,-125.0,-5.0,-72.0,-142.0,-72.0,-142.0,87.60000000000002,-142.0,87.60000000000002,-142.0
77,1.0,0.56,1.0,1.0,195.0,-65.0,195.0,-65.0,178.4,108.4,178.4,108.4,178.4,2.0,178.4,2.0
185,-1.0,0.72,1.0,1.0,-65.0,195.0,-65.0,195.0,130.79999999999998,200.8,130.79999999999998,200.8,-5.999999999999993,200.8,-5.999999999999993,200.8
354,1.0,0.6,1.0,-1.0,-125.0,-5.0,-125.0,-5.0,-60.0,-130.0,-60.0,-130.0,54.0,-130.0,54.0,-130.0
240,-1.0,0.8200000000000001,1.0,1.0,-65.0,195.0,-65.0,195.0,144.8,214.8,144.8,214.8,-11.0,214.8,-11.0,214.8
214,-1.0,0.8,1.0,1.0,-65.0,195.0,-65.0,195.0,142.0,212.0,142.0,212.0,-10.0,212.0,-10.0,212.0
46,1.0,0.94,1.0,1.0,195.0,-65.0,195.0,-65.0,231.60000000000002,161.6,231.60000000000002,161.6,231.60000000000002,-17.0,231.60000000000002,-17.0
279,1.0,0.6,1.0,-1.0,-125.0,-5.0,-125.0,-5.0,-60.0,-130.0,-60.0,-130.0,54.0,-130.0,54.0,-130.0
488,-1.0,0.78,1.0,-1.0,-5.0,-125.0,-5.0,-125.0,-139.0,-69.0,-139.0,-69.0,-139.0,79.20000000000002,-139.0,79.20000000000002
435,-1.0,0.72,1.0,-1.0,-5.0,-125.0,-5.0,-125.0,-136.0,-66.0,-136.0,-66.0,-136.0,70.79999999999998,-136.0,70.79999999999998
305,1.0,0.62,1.0,-1.0,-125.0,-5.0,-125.0,-5.0,-61.0,-131.0,-61.0,-131.0,56.8,-131.0,56.8,-131.0
33,1.0,0.6799999999999999,1.0,1.0,195.0,-65.0,195.0,-65.0,195.2,125.19999999999999,195.2,125.19999999999999,195.2,-4.0,195.2,-4.0
320,1.0,0.9199999999999999,1.0,-1.0,-125.0,-5.0,-125.0,-5.0,-76.0,-146.0,-76.0,-146.0,98.79999999999998,-146.0,98.79999999999998,-146.0
419,-1.0,0.9,1.0,-1.0,-5.0,-125.0,-5.0,-125.0,-145.0,-75.0,-145.0,-75.0,-145.0,96.0,-145.0,96.0
259,1.0,0.7,1.0,-1.0,-125.0,-5.0,-125.0,-5.0,-65.0,-135.0,-65.0,-135.0,68.0,-135.0,68.0,-135.0
220,-1.0,0.9199999999999999,1.0,1.0,-65.0,195.0,-65.0,195.0,158.8,228.8,158.8,228.8,-15.999999999999986,228.8,-15.999999999999986,228.8
35,1.0,0.72,1.0,1.0,195.0,-65.0,195.0,-65.0,200.8,130.79999999999998,200.8,130.79999999999998,200.8,-5.999999999999993,200.8,-5.999999999999993
153,-1.0,0.58,1.0,1.0,-65.0,195.0,-65.0,195.0,111.19999999999999,181.2,111.19999999999999,181.2,1.0,181.2,1.0,181.2
186,-1.0,0.74,1.0,1.0,-65.0,195.0,-65.0,195.0,133.6,203.60000000000002,133.6,203.60000000000002,-7.0,203.60000000000002,-7.0,203.60000000000002
152,-1.0,0.56,1.0,1.0,-65.0,195.0,-65.0,195.0,108.4,178.4,108.4,178.4,2.0,178.4,2.0,178.4
248,-1.0,0.98,1.0,1.0,-65.0,195.0,-65.0,195.0,167.2,237.2,167.2,237.2,-19.0,237.2,-19.0,237.2
284,1.0,0.7,1.0,-1.0,-125.0,-5.0,-125.0,-5.0,-65.0,-135.0,-65.0,-135.0,68.0,-135.0,68.0,-135.0
409,-1.0,0.7,1.0,-1.0,-5.0,-125.0,-5.0,-125.0,-135.0,-65.0,-135.0,-65.0,-135.0,68.0,-135.0,68.0
315,1.0,0.8200000000000001,1.0,-1.0,-125.0,-5.0,-125.0,-5.0,-71.0,-141.0,-71.0,-141.0,84.80000000000001,-141.0,84.80000000000001,-141.0
110,1.0,0.72,1.0,1.0,195.0,-65.0,195.0,-65.0,200.8,130.79999999999998,200.8,130.79999999999998,200.8,-5.999999999999993,200.8,-5.999999999999993
363,1.0,0.78,1.0,-1.0,-125.0,-5.0,-125.0,-5.0,-69.0,-139.0,-69.0,-139.0,79.20000000000002,-139.0,79.20000000000002,-139.0
208,-1.0,0.6799999999999999,1.0,1.0,-65.0,195.0,-65.0,195.0,125.19999999999999,195.2,125.19999999999999,195.2,-4.0,195.2,-4.0,195.2
137,-1.0,0.76,1.0,1.0,-65.0,195.0,-65.0,195.0,136.4,206.39999999999998,136.4,206.39999999999998,-8.0,206.39999999999998,-8.0,206.39999999999998
10,1.0,0.72,1.0,1.0,195.0,-65.0,195.0,-65.0,200.8,130.79999999999998,200.8,130.79999999999998,200.8,-5.999999999999993,200.8,-5.999999999999993
177,-1.0,0.56,1.0,1.0,-65.0,195.0,-65.0,195.0,108.4,178.4,108.4,178.4,2.0,178.4,2.0,178.4
278,1.0,0.58,1.0,-1.0,-125.0,-5.0,-125.0,-5.0,-59.0,-129.0,-59.0,-129.0,51.19999999999999,-129.0,51.19999999999999,-129.0
471,-1.0,0.94,1.0,-1.0,-5.0,-125.0,-5.0,-125.0,-147.0,-77.0,-147.0,-77.0,-147.0,101.6,-147.0,101.6
193,-1.0,0.88,1.0,1.0,-65.0,195.0,-65.0,195.0,153.2,223.2,153.2,223.2,-14.0,223.2,-14.0,223.2
335,1.0,0.72,1.0,-1.0,-125.0,-5.0,-125.0,-5.0,-66.0,-136.0,-66.0,-136.0,70.79999999999998,-136.0,70.79999999999998,-136.0
376,-1.0,0.54,1.0,-1.0,-5.0,-125.0,-5.0,-125.0,-127.0,-57.0,-127.0,-57.0,-127.0,45.60000000000001,-127.0,45.60000000000001
295,1.0,0.9199999999999999,1.0,-1.0,-125.0,-5.0,-125.0,-5.0,-76.0,-146.0,-76.0,-146.0,98.79999999999998,-146.0,98.79999999999998,-146.0
50,1.0,0.52,1.0,1.0,195.0,-65.0,195.0,-65.0,172.8,102.80000000000001,172.8,102.80000000000001,172.8,4.000000000000007,172.8,4.000000000000007
434,-1.0,0.7,1.0,-1.0,-5.0,-125.0,-5.0,-125.0,-135.0,-65.0,-135.0,-65.0,-135.0,68.0,-135.0,68.0
228,-1.0,0.58,1.0,1.0,-65.0,195.0,-65.0,195.0,111.19999999999999,181.2,111.19999999999999,181.2,1.0,181.2,1.0,181.2
447,-1.0,0.96,1.0,-1.0,-5.0,-125.0,-5.0,-125.0,-148.0,-78.0,-148.0,-78.0,-148.0,104.4,-148.0,104.4
40,1.0,0.8200000000000001,1.0,1.0,195.0,-65.0,195.0,-65.0,214.8,144.8,214.8,144.8,214.8,-11.0,214.8,-11.0
89,1.0,0.8,1.0,1.0,195.0,-65.0,195.0,-65.0,212.0,142.0,212.0,142.0,212.0,-10.0,212.0,-10.0
209,-1.0,0.7,1.0,1.0,-65.0,195.0,-65.0,195.0,128.0,198.0,128.0,198.0,-5.0,198.0,-5.0,198.0
331,1.0,0.64,1.0,-1.0,-125.0,-5.0,-125.0,-5.0,-62.0,-132.0,-62.0,-132.0,59.60000000000001,-132.0,59.60000000000001,-132.0
270,1.0,0.9199999999999999,1.0,-1.0,-125.0,-5.0,-125.0,-5.0,-76.0,-146.0,-76.0,-146.0,98.79999999999998,-146.0,98.79999999999998,-146.0
372,1.0,0.96,1.0,-1.0,-125.0,-5.0,-125.0,-5.0,-78.0,-148.0,-78.0,-148.0,104.4,-148.0,104.4,-148.0
274,1.0,1.0,1.0,-1.0,-125.0,-5.0,-125.0,-5.0,-80.0,-150.0,-80.0,-150.0,110.0,-150.0,110.0,-150.0
478,-1.0,0.58,1.0,-1.0,-5.0,-125.0,-5.0,-125.0,-129.0,-59.0,-129.0,-59.0,-129.0,51.19999999999999,-129.0,51.19999999999999
231,-1.0,0.64,1.0,1.0,-65.0,195.0,-65.0,195.0,119.6,189.60000000000002,119.6,189.60000000000002,-2.000000000000007,189.60000000000002,-2.000000000000007,189.60000000000002
415,-1.0,0.8200000000000001,1.0,-1.0,-5.0,-125.0,-5.0,-125.0,-141.0,-71.0,-141.0,-71.0,-141.0,84.80000000000001,-141.0,84.80000000000001
254,1.0,0.6,1.0,-1.0,-125.0,-5.0,-125.0,-5.0,-60.0,-130.0,-60.0,-130.0,54.0,-130.0,54.0,-130.0
350,1.0,0.52,1.0,-1.0,-125.0,-5.0,-125.0,-5.0,-56.0,-126.0,-56.0,-126.0,42.8,-126.0,42.8,-126.0
57,1.0,0.66,1.0,1.0,195.0,-65.0,195.0,-65.0,192.39999999999998,122.4,192.39999999999998,122.4,192.39999999999998,-3.0,192.39999999999998,-3.0
60,1.0,0.72,1.0,1.0,195.0,-65.0,195.0,-65.0,200.8,130.79999999999998,200.8,130.79999999999998,200.8,-5.999999999999993,200.8,-5.999999999999993
199,-1.0,1.0,1.0,1.0,-65.0,195.0,-65.0,195.0,170.0,240.0,170.0,240.0,-20.0,240.0,-20.0,240.0
492,-1.0,0.86,1.0,-1.0,-5.0,-125.0,-5.0,-125.0,-143.0,-73.0,-143.0,-73.0,-143.0,90.4,-143.0,90.4
282,1.0,0.66,1.0,-1.0,-125.0,-5.0,-125.0,-5.0,-63.0,-133.0,-63.0,-133.0,62.400000000000006,-133.0,62.400000000000006,-133.0
431,-1.0,0.64,1.0,-1.0,-5.0,-125.0,-5.0,-125.0,-132.0,-62.0,-132.0,-62.0,-132.0,59.60000000000001,-132.0,59.60000000000001
79,1.0,0.6,1.0,1.0,195.0,-65.0,195.0,-65.0,184.0,114.0,184.0,114.0,184.0,0.0,184.0,0.0
17,1.0,0.86,1.0,1.0,195.0,-65.0,195.0,-65.0,220.39999999999998,150.4,220.39999999999998,150.4,220.39999999999998,-13.0,220.39999999999998,-13.0
27,1.0,0.56,1.0,1.0,195.0,-65.0,195.0,-65.0,178.4,108.4,178.4,108.4,178.4,2.0,178.4,2.0
377,-1.0,0.56,1.0,-1.0,-5.0,-125.0,-5.0,-125.0,-128.0,-58.0,-128.0,-58.0,-128.0,48.400000000000006,-128.0,48.400000000000006
32,1.0,0.66,1.0,1.0,195.0,-65.0,195.0,-65.0,192.39999999999998,122.4,192.39999999999998,122.4,192.39999999999998,-3.0,192.39999999999998,-3.0
63,1.0,0.78,1.0,1.0,195.0,-65.0,195.0,-65.0,209.2,139.2,209.2,139.2,209.2,-9.000000000000014,209.2,-9.000000000000014
59,1.0,0.7,1.0,1.0,195.0,-65.0,195.0,-65.0,198.0,128.0,198.0,128.0,198.0,-5.0,198.0,-5.0
490,-1.0,0.8200000000000001,1.0,-1.0,-5.0,-125.0,-5.0,-125.0,-141.0,-71.0,-141.0,-71.0,-141.0,84.80000000000001,-141.0,84.80000000000001
164,-1.0,0.8,1.0,1.0,-65.0,195.0,-65.0,195.0,142.0,212.0,142.0,212.0,-10.0,212.0,-10.0,212.0
494,-1.0,0.9,1.0,-1.0,-5.0,-125.0,-5.0,-125.0,-145.0,-75.0,-145.0,-75.0,-145.0,96.0,-145.0,96.0
449,-1.0,1.0,1.0,-1.0,-5.0,-125.0,-5.0,-125.0,-150.0,-80.0,-150.0,-80.0,-150.0,110.0,-150.0,110.0
461,-1.0,0.74,1.0,-1.0,-5.0,-125.0,-5.0,-125.0,-137.0,-67.0,-137.0,-67.0,-137.0,73.6,-137.0,73.6
302,1.0,0.56,1.0,-1.0,-125.0,-5.0,-125.0,-5.0,-58.0,-128.0,-58.0,-128.0,48.400000000000006,-128.0,48.400000000000006,-128.0
347,1.0,0.96,1.0,-1.0,-125.0,-5.0,-125.0,-5.0,-78.0,-148.0,-78.0,-148.0,104.4,-148.0,104.4,-148.0
42,1.0,0.86,1.0,1.0,195.0,-65.0,195.0,-65.0,220.39999999999998,150.4,220.39999999999998,150.4,220.39999999999998,-13.0,220.39999999999998,-13.0
360,1.0,0.72,1.0,-1.0,-125.0,-5.0,-125.0,-5.0,-66.0,-136.0,-66.0,-136.0,70.79999999999998,-136.0,70.79999999999998,-136.0
181,-1.0,0.64,1.0,1.0,-65.0,195.0,-65.0,195.0,119.6,189.60000000000002,119.6,189.60000000000002,-2.000000000000007,189.60000000000002,-2.000000000000007,189.60000000000002
242,-1.0,0.86,1.0,1.0,-65.0,195.0,-65.0,195.0,150.4,220.39999999999998,150.4,220.39999999999998,-13.0,220.39999999999998,-13.0,220.39999999999998
457,-1.0,0.66,1.0,-1.0,-5.0,-125.0,-5.0,-125.0,-133.0,-63.0,-133.0,-63.0,-133.0,62.400000000000006,-133.0,62.400000000000006
480,-1.0,0.62,1.0,-1.0,-5.0,-125.0,-5.0,-125.0,-131.0,-61.0,-131.0,-61.0,-131.0,56.8,-131.0,56.8
5,1.0,0.62,1.0,1.0,195.0,-65.0,195.0,-65.0,186.8,116.8,186.8,116.8,186.8,-1.0,186.8,-1.0
498,-1.0,0.98,1.0,-1.0,-5.0,-125.0,-5.0,-125.0,-149.0,-79.0,-149.0,-79.0,-149.0,107.19999999999999,-149.0,107.19999999999999
219,-1.0,0.9,1.0,1.0,-65.0,195.0,-65.0,195.0,156.0,226.0,156.0,226.0,-15.0,226.0,-15.0,226.0
218,-1.0,0.88,1.0,1.0,-65.0,195.0,-65.0,195.0,153.2,223.2,153.2,223.2,-14.0,223.2,-14.0,223.2
227,-1.0,0.56,1.0,1.0,-65.0,195.0,-65.0,195.0,108.4,178.4,108.4,178.4,2.0,178.4,2.0,178.4
316,1.0,0.8400000000000001,1.0,-1.0,-125.0,-5.0,-125.0,-5.0,-72.0,-142.0,-72.0,-142.0,87.60000000000002,-142.0,87.60000000000002,-142.0
276,1.0,0.54,1.0,-1.0,-125.0,-5.0,-125.0,-5.0,-57.0,-127.0,-57.0,-127.0,45.60000000000001,-127.0,45.60000000000001,-127.0
233,-1.0,0.6799999999999999,1.0,1.0,-65.0,195.0,-65.0,195.0,125.19999999999999,195.2,125.19999999999999,195.2,-4.0,195.2,-4.0,195.2
176,-1.0,0.54,1.0,1.0,-65.0,195.0,-65.0,195.0,105.6,175.6,105.6,175.6,2.999999999999993,175.6,2.999999999999993,175.6
197,-1.0,0.96,1.0,1.0,-65.0,195.0,-65.0,195.0,164.39999999999998,234.39999999999998,164.39999999999998,234.39999999999998,-18.000000000000014,234.39999999999998,-18.000000000000014,234.39999999999998
234,-1.0,0.7,1.0,1.0,-65.0,195.0,-65.0,195.0,128.0,198.0,128.0,198.0,-5.0,198.0,-5.0,198.0
371,1.0,0.94,1.0,-1.0,-125.0,-5.0,-125.0,-5.0,-77.0,-147.0,-77.0,-147.0,101.6,-147.0,101.6,-147.0
140,-1.0,0.8200000000000001,1.0,1.0,-65.0,195.0,-65.0,195.0,144.8,214.8,144.8,214.8,-11.0,214.8,-11.0,214.8
45,1.0,0.9199999999999999,1.0,1.0,195.0,-65.0,195.0,-65.0,228.8,158.8,228.8,158.8,228.8,-15.999999999999986,228.8,-15.999999999999986
47,1.0,0.96,1.0,1.0,195.0,-65.0,195.0,-65.0,234.39999999999998,164.39999999999998,234.39999999999998,164.39999999999998,234.39999999999998,-18.000000000000014,234.39999999999998,-18.000000000000014
442,-1.0,0.86,1.0,-1.0,-5.0,-125.0,-5.0,-125.0,-143.0,-73.0,-143.0,-73.0,-143.0,90.4,-143.0,90.4
451,-1.0,0.54,1.0,-1.0,-5.0,-125.0,-5.0,-125.0,-127.0,-57.0,-127.0,-57.0,-127.0,45.60000000000001,-127.0,45.60000000000001
405,-1.0,0.62,1.0,-1.0,-5.0,-125.0,-5.0,-125.0,-131.0,-61.0,-131.0,-61.0,-131.0,56.8,-131.0,56.8
70,1.0,0.9199999999999999,1.0,1.0,195.0,-65.0,195.0,-65.0,228.8,158.8,228.8,158.8,228.8,-15.999999999999986,228.8,-15.999999999999986
357,1.0,0.66,1.0,-1.0,-125.0,-5.0,-125.0,-5.0,-63.0,-133.0,-63.0,-133.0,62.400000000000006,-133.0,62.400000000000006,-133.0
201,-1.0,0.54,1.0,1.0,-65.0,195.0,-65.0,195.0,105.6,175.6,105.6,175.6,2.999999999999993,175.6,2.999999999999993,175.6
346,1.0,0.94,1.0,-1.0,-125.0,-5.0,-125.0,-5.0,-77.0,-147.0,-77.0,-147.0,101.6,-147.0,101.6,-147.0
41,1.0,0.8400000000000001,1.0,1.0,195.0,-65.0,195.0,-65.0,217.60000000000002,147.60000000000002,217.60000000000002,147.60000000000002,217.60000000000002,-12.0,217.60000000000002,-12.0
397,-1.0,0.96,1.0,-1.0,-5.0,-125.0,-5.0,-125.0,-148.0,-78.0,-148.0,-78.0,-148.0,104.4,-148.0,104.4
58,1.0,0.6799999999999999,1.0,1.0,195.0,-65.0,195.0,-65.0,195.2,125.19999999999999,195.2,125.19999999999999,195.2,-4.0,195.2,-4.0
473,-1.0,0.98,1.0,-1.0,-5.0,-125.0,-5.0,-125.0,-149.0,-79.0,-149.0,-79.0,-149.0,107.19999999999999,-149.0,107.19999999999999
115,1.0,0.8200000000000001,1.0,1.0,195.0,-65.0,195.0,-65.0,214.8,144.8,214.8,144.8,214.8,-11.0,214.8,-11.0
470,-1.0,0.9199999999999999,1.0,-1.0,-5.0,-125.0,-5.0,-125.0,-146.0,-76.0,-146.0,-76.0,-146.0,98.79999999999998,-146.0,98.79999999999998
389,-1.0,0.8,1.0,-1.0,-5.0,-125.0,-5.0,-125.0,-140.0,-70.0,-140.0,-70.0,-140.0,82.0,-140.0,82.0
443,-1.0,0.88,1.0,-1.0,-5.0,-125.0,-5.0,-125.0,-144.0,-74.0,-144.0,-74.0,-144.0,93.19999999999999,-144.0,93.19999999999999
123,1.0,0.98,1.0,1.0,195.0,-65.0,195.0,-65.0,237.2,167.2,237.2,167.2,237.2,-19.0,237.2,-19.0
170,-1.0,0.9199999999999999,1.0,1.0,-65.0,195.0,-65.0,195.0,158.8,228.8,158.8,228.8,-15.999999999999986,228.8,-15.999999999999986,228.8
15,1.0,0.8200000000000001,1.0,1.0,195.0,-65.0,195.0,-65.0,214.8,144.8,214.8,144.8,214.8,-11.0,214.8,-11.0
7,1.0,0.66,1.0,1.0,195.0,-65.0,195.0,-65.0,192.39999999999998,122.4,192.39999999999998,122.4,192.39999999999998,-3.0,192.39999999999998,-3.0
207,-1.0,0.66,1.0,1.0,-65.0,195.0,-65.0,195.0,122.4,192.39999999999998,122.4,192.39999999999998,-3.0,192.39999999999998,-3.0,192.39999999999998
349,1.0,1.0,1.0,-1.0,-125.0,-5.0,-125.0,-5.0,-80.0,-150.0,-80.0,-150.0,110.0,-150.0,110.0,-150.0
329,1.0,0.6,1.0,-1.0,-125.0,-5.0,-125.0,-5.0,-60.0,-130.0,-60.0,-130.0,54.0,-130.0,54.0,-130.0
319,1.0,0.9,1.0,-1.0,-125.0,-5.0,-125.0,-5.0,-75.0,-145.0,-75.0,-145.0,96.0,-145.0,96.0,-145.0
429,-1.0,0.6,1.0,-1.0,-5.0,-125.0,-5.0,-125.0,-130.0,-60.0,-130.0,-60.0,-130.0,54.0,-130.0,54.0
310,1.0,0.72,1.0,-1.0,-125.0,-5.0,-125.0,-5.0,-66.0,-136.0,-66.0,-136.0,70.79999999999998,-136.0,70.79999999999998,-136.0
103,1.0,0.58,1.0,1.0,195.0,-65.0,195.0,-65.0,181.2,111.19999999999999,181.2,111.19999999999999,181.2,1.0,181.2,1.0
65,1.0,0.8200000000000001,1.0,1.0,195.0,-65.0,195.0,-65.0,214.8,144.8,214.8,144.8,214.8,-11.0,214.8,-11.0
441,-1.0,0.8400000000000001,1.0,-1.0,-5.0,-125.0,-5.0,-125.0,-142.0,-72.0,-142.0,-72.0,-142.0,87.60000000000002,-142.0,87.60000000000002
396,-1.0,0.94,1.0,-1.0,-5.0,-125.0,-5.0,-125.0,-147.0,-77.0,-147.0,-77.0,-147.0,101.6,-147.0,101.6
56,1.0,0.64,1.0,1.0,195.0,-65.0,195.0,-65.0,189.60000000000002,119.6,189.60000000000002,119.6,189.60000000000002,-2.000000000000007,189.60000000000002,-2.000000000000007
184,-1.0,0.7,1.0,1.0,-65.0,195.0,-65.0,195.0,128.0,198.0,128.0,198.0,-5.0,198.0,-5.0,198.0
24,1.0,1.0,1.0,1.0,195.0,-65.0,195.0,-65.0,240.0,170.0,240.0,170.0,240.0,-20.0,240.0,-20.0
309,1.0,0.7,1.0,-1.0,-125.0,-5.0,-125.0,-5.0,-65.0,-135.0,-65.0,-135.0,68.0,-135.0,68.0,-135.0
367,1.0,0.86,1.0,-1.0,-125.0,-5.0,-125.0,-5.0,-73.0,-143.0,-73.0,-143.0,90.4,-143.0,90.4,-143.0
43,1.0,0.88,1.0,1.0,195.0,-65.0,195.0,-65.0,223.2,153.2,223.2,153.2,223.2,-14.0,223.2,-14.0
263,1.0,0.78,1.0,-1.0,-125.0,-5.0,-125.0,-5.0,-69.0,-139.0,-69.0,-139.0,79.20000000000002,-139.0,79.20000000000002,-139.0
458,-1.0,0.6799999999999999,1.0,-1.0,-5.0,-125.0,-5.0,-125.0,-134.0,-64.0,-134.0,-64.0,-134.0,65.19999999999999,-134.0,65.19999999999999
85,1.0,0.72,1.0,1.0,195.0,-65.0,195.0,-65.0,200.8,130.79999999999998,200.8,130.79999999999998,200.8,-5.999999999999993,200.8,-5.999999999999993
171,-1.0,0.94,1.0,1.0,-65.0,195.0,-65.0,195.0,161.6,231.60000000000002,161.6,231.60000000000002,-17.0,231.60000000000002,-17.0,231.60000000000002
338,1.0,0.78,1.0,-1.0,-125.0,-5.0,-125.0,-5.0,-69.0,-139.0,-69.0,-139.0,79.20000000000002,-139.0,79.20000000000002,-139.0
190,-1.0,0.8200000000000001,1.0,1.0,-65.0,195.0,-65.0,195.0,144.8,214.8,144.8,214.8,-11.0,214.8,-11.0,214.8
102,1.0,0.56,1.0,1.0,195.0,-65.0,195.0,-65.0,178.4,108.4,178.4,108.4,178.4,2.0,178.4,2.0
418,-1.0,0.88,1.0,-1.0,-5.0,-125.0,-5.0,-125.0,-144.0,-74.0,-144.0,-74.0,-144.0,93.19999999999999,-144.0,93.19999999999999
333,1.0,0.6799999999999999,1.0,-1.0,-125.0,-5.0,-125.0,-5.0,-64.0,-134.0,-64.0,-134.0,65.19999999999999,-134.0,65.19999999999999,-134.0
169,-1.0,0.9,1.0,1.0,-65.0,195.0,-65.0,195.0,156.0,226.0,156.0,226.0,-15.0,226.0,-15.0,226.0
313,1.0,0.78,1.0,-1.0,-125.0,-5.0,-125.0,-5.0,-69.0,-139.0,-69.0,-139.0,79.20000000000002,-139.0,79.20000000000002,-139.0
408,-1.0,0.6799999999999999,1.0,-1.0,-5.0,-125.0,-5.0,-125.0,-134.0,-64.0,-134.0,-64.0,-134.0,65.19999999999999,-134.0,65.19999999999999
290,1.0,0.8200000000000001,1.0,-1.0,-125.0,-5.0,-125.0,-5.0,-71.0,-141.0,-71.0,-141.0,84.80000000000001,-141.0,84.80000000000001,-141.0
158,-1.0,0.6799999999999999,1.0,1.0,-65.0,195.0,-65.0,195.0,125.19999999999999,195.2,125.19999999999999,195.2,-4.0,195.2,-4.0,195.2
2,1.0,0.56,1.0,1.0,195.0,-65.0,195.0,-65.0,178.4,108.4,178.4,108.4,178.4,2.0,178.4,2.0
336,1.0,0.74,1.0,-1.0,-125.0,-5.0,-125.0,-5.0,-67.0,-137.0,-67.0,-137.0,73.6,-137.0,73.6,-137.0
272,1.0,0.96,1.0,-1.0,-125.0,-5.0,-125.0,-5.0,-78.0,-148.0,-78.0,-148.0,104.4,-148.0,104.4,-148.0
11,1.0,0.74,1.0,1.0,195.0,-65.0,195.0,-65.0,203.60000000000002,133.6,203.60000000000002,133.6,203.60000000000002,-7.0,203.60000000000002,-7.0
145,-1.0,0.9199999999999999,1.0,1.0,-65.0,195.0,-65.0,195.0,158.8,228.8,158.8,228.8,-15.999999999999986,228.8,-15.999999999999986,228.8
455,-1.0,0.62,1.0,-1.0,-5.0,-125.0,-5.0,-125.0,-131.0,-61.0,-131.0,-61.0,-131.0,56.8,-131.0,56.8
221,-1.0,0.94,1.0,1.0,-65.0,195.0,-65.0,195.0,161.6,231.60000000000002,161.6,231.60000000000002,-17.0,231.60000000000002,-17.0,231.60000000000002
166,-1.0,0.8400000000000001,1.0,1.0,-65.0,195.0,-65.0,195.0,147.60000000000002,217.60000000000002,147.60000000000002,217.60000000000002,-12.0,217.60000000000002,-12.0,217.60000000000002
379,-1.0,0.6,1.0,-1.0,-5.0,-125.0,-5.0,-125.0,-130.0,-60.0,-130.0,-60.0,-130.0,54.0,-130.0,54.0
172,-1.0,0.96,1.0,1.0,-65.0,195.0,-65.0,195.0,164.39999999999998,234.39999999999998,164.39999999999998,234.39999999999998,-18.000000000000014,234.39999999999998,-18.000000000000014,234.39999999999998
496,-1.0,0.94,1.0,-1.0,-5.0,-125.0,-5.0,-125.0,-147.0,-77.0,-147.0,-77.0,-147.0,101.6,-147.0,101.6
120,1.0,0.9199999999999999,1.0,1.0,195.0,-65.0,195.0,-65.0,228.8,158.8,228.8,158.8,228.8,-15.999999999999986,228.8,-15.999999999999986
36,1.0,0.74,1.0,1.0,195.0,-65.0,195.0,-65.0,203.60000000000002,133.6,203.60000000000002,133.6,203.60000000000002,-7.0,203.60000000000002,-7.0
238,-1.0,0.78,1.0,1.0,-65.0,195.0,-65.0,195.0,139.2,209.2,139.2,209.2,-9.000000000000014,209.2,-9.000000000000014,209.2
463,-1.0,0.78,1.0,-1.0,-5.0,-125.0,-5.0,-125.0,-139.0,-69.0,-139.0,-69.0,-139.0,79.20000000000002,-139.0,79.20000000000002
297,1.0,0.96,1.0,-1.0,-125.0,-5.0,-125.0,-5.0,-78.0,-148.0,-78.0,-148.0,104.4,-148.0,104.4,-148.0
462,-1.0,0.76,1.0,-1.0,-5.0,-125.0,-5.0,-125.0,-138.0,-68.0,-138.0,-68.0,-138.0,76.4,-138.0,76.4
436,-1.0,0.74,1.0,-1.0,-5.0,-125.0,-5.0,-125.0,-137.0,-67.0,-137.0,-67.0,-137.0,73.6,-137.0,73.6
94,1.0,0.9,1.0,1.0,195.0,-65.0,195.0,-65.0,226.0,156.0,226.0,156.0,226.0,-15.0,226.0,-15.0
401,-1.0,0.54,1.0,-1.0,-5.0,-125.0,-5.0,-125.0,-127.0,-57.0,-127.0,-57.0,-127.0,45.60000000000001,-127.0,45.60000000000001
430,-1.0,0.62,1.0,-1.0,-5.0,-125.0,-5.0,-125.0,-131.0,-61.0,-131.0,-61.0,-131.0,56.8,-131.0,56.8
304,1.0,0.6,1.0,-1.0,-125.0,-5.0,-125.0,-5.0,-60.0,-130.0,-60.0,-130.0,54.0,-130.0,54.0,-130.0
154,-1.0,0.6,1.0,1.0,-65.0,195.0,-65.0,195.0,114.0,184.0,114.0,184.0,0.0,184.0,0.0,184.0
339,1.0,0.8,1.0,-1.0,-125.0,-5.0,-125.0,-5.0,-70.0,-140.0,-70.0,-140.0,82.0,-140.0,82.0,-140.0
96,1.0,0.94,1.0,1.0,195.0,-65.0,195.0,-65.0,231.60000000000002,161.6,231.60000000000002,161.6,231.60000000000002,-17.0,231.60000000000002,-17.0
294,1.0,0.9,1.0,-1.0,-125.0,-5.0,-125.0,-5.0,-75.0,-145.0,-75.0,-145.0,96.0,-145.0,96.0,-145.0
189,-1.0,0.8,1.0,1.0,-65.0,195.0,-65.0,195.0,142.0,212.0,142.0,212.0,-10.0,212.0,-10.0,212.0
71,1.0,0.94,1.0,1.0,195.0,-65.0,195.0,-65.0,231.60000000000002,161.6,231.60000000000002,161.6,231.60000000000002,-17.0,231.60000000000002,-17.0
365,1.0,0.8200000000000001,1.0,-1.0,-125.0,-5.0,-125.0,-5.0,-71.0,-141.0,-71.0,-141.0,84.80000000000001,-141.0,84.80000000000001,-141.0
245,-1.0,0.9199999999999999,1.0,1.0,-65.0,195.0,-65.0,195.0,158.8,228.8,158.8,228.8,-15.999999999999986,228.8,-15.999999999999986,228.8
3,1.0,0.58,1.0,1.0,195.0,-65.0,195.0,-65.0,181.2,111.19999999999999,181.2,111.19999999999999,181.2,1.0,181.2,1.0
74,1.0,1.0,1.0,1.0,195.0,-65.0,195.0,-65.0,240.0,170.0,240.0,170.0,240.0,-20.0,240.0,-20.0
239,-1.0,0.8,1.0,1.0,-65.0,195.0,-65.0,195.0,142.0,212.0,142.0,212.0,-10.0,212.0,-10.0,212.0
356,1.0,0.64,1.0,-1.0,-125.0,-5.0,-125.0,-5.0,-62.0,-132.0,-62.0,-132.0,59.60000000000001,-132.0,59.60000000000001,-132.0
26,1.0,0.54,1.0,1.0,195.0,-65.0,195.0,-65.0,175.6,105.6,175.6,105.6,175.6,2.999999999999993,175.6,2.999999999999993
287,1.0,0.76,1.0,-1.0,-125.0,-5.0,-125.0,-5.0,-68.0,-138.0,-68.0,-138.0,76.4,-138.0,76.4,-138.0
31,1.0,0.64,1.0,1.0,195.0,-65.0,195.0,-65.0,189.60000000000002,119.6,189.60000000000002,119.6,189.60000000000002,-2.000000000000007,189.60000000000002,-2.000000000000007
393,-1.0,0.88,1.0,-1.0,-5.0,-125.0,-5.0,-125.0,-144.0,-74.0,-144.0,-74.0,-144.0,93.19999999999999,-144.0,93.19999999999999
373,1.0,0.98,1.0,-1.0,-125.0,-5.0,-125.0,-5.0,-79.0,-149.0,-79.0,-149.0,107.19999999999999,-149.0,107.19999999999999,-149.0
150,-1.0,0.52,1.0,1.0,-65.0,195.0,-65.0,195.0,102.80000000000001,172.8,102.80000000000001,172.8,4.000000000000007,172.8,4.000000000000007,172.8
107,1.0,0.66,1.0,1.0,195.0,-65.0,195.0,-65.0,192.39999999999998,122.4,192.39999999999998,122.4,192.39999999999998,-3.0,192.39999999999998,-3.0
16,1.0,0.8400000000000001,1.0,1.0,195.0,-65.0,195.0,-65.0,217.60000000000002,147.60000000000002,217.60000000000002,147.60000000000002,217.60000000000002,-12.0,217.60000000000002,-12.0
200,-1.0,0.52,1.0,1.0,-65.0,195.0,-65.0,195.0,102.80000000000001,172.8,102.80000000000001,172.8,4.000000000000007,172.8,4.000000000000007,172.8
235,-1.0,0.72,1.0,1.0,-65.0,195.0,-65.0,195.0,130.79999999999998,200.8,130.79999999999998,200.8,-5.999999999999993,200.8,-5.999999999999993,200.8
328,1.0,0.58,1.0,-1.0,-125.0,-5.0,-125.0,-5.0,-59.0,-129.0,-59.0,-129.0,51.19999999999999,-129.0,51.19999999999999,-129.0
499,-1.0,1.0,1.0,-1.0,-5.0,-125.0,-5.0,-125.0,-150.0,-80.0,-150.0,-80.0,-150.0,110.0,-150.0,110.0
358,1.0,0.6799999999999999,1.0,-1.0,-125.0,-5.0,-125.0,-5.0,-64.0,-134.0,-64.0,-134.0,65.19999999999999,-134.0,65.19999999999999,-134.0
407,-1.0,0.66,1.0,-1.0,-5.0,-125.0,-5.0,-125.0,-133.0,-63.0,-133.0,-63.0,-133.0,62.400000000000006,-133.0,62.400000000000006
264,1.0,0.8,1.0,-1.0,-125.0,-5.0,-125.0,-5.0,-70.0,-140.0,-70.0,-140.0,82.0,-140.0,82.0,-140.0
92,1.0,0.86,1.0,1.0,195.0,-65.0,195.0,-65.0,220.39999999999998,150.4,220.39999999999998,150.4,220.39999999999998,-13.0,220.39999999999998,-13.0
361,1.0,0.74,1.0,-1.0,-125.0,-5.0,-125.0,-5.0,-67.0,-137.0,-67.0,-137.0,73.6,-137.0,73.6,-137.0
20,1.0,0.9199999999999999,1.0,1.0,195.0,-65.0,195.0,-65.0,228.8,158.8,228.8,158.8,228.8,-15.999999999999986,228.8,-15.999999999999986
300,1.0,0.52,1.0,-1.0,-125.0,-5.0,-125.0,-5.0,-56.0,-126.0,-56.0,-126.0,42.8,-126.0,42.8,-126.0
83,1.0,0.6799999999999999,1.0,1.0,195.0,-65.0,195.0,-65.0,195.2,125.19999999999999,195.2,125.19999999999999,195.2,-4.0,195.2,-4.0
345,1.0,0.9199999999999999,1.0,-1.0,-125.0,-5.0,-125.0,-5.0,-76.0,-146.0,-76.0,-146.0,98.79999999999998,-146.0,98.79999999999998,-146.0
402,-1.0,0.56,1.0,-1.0,-5.0,-125.0,-5.0,-125.0,-128.0,-58.0,-128.0,-58.0,-128.0,48.400000000000006,-128.0,48.400000000000006
476,-1.0,0.54,1.0,-1.0,-5.0,-125.0,-5.0,-125.0,-127.0,-57.0,-127.0,-57.0,-127.0,45.60000000000001,-127.0,45.60000000000001
198,-1.0,0.98,1.0,1.0,-65.0,195.0,-65.0,195.0,167.2,237.2,167.2,237.2,-19.0,237.2,-19.0,237.2
394,-1.0,0.9,1.0,-1.0,-5.0,-125.0,-5.0,-125.0,-145.0,-75.0,-145.0,-75.0,-145.0,96.0,-145.0,96.0
225,-1.0,0.52,1.0,1.0,-65.0,195.0,-65.0,195.0,102.80000000000001,172.8,102.80000000000001,172.8,4.000000000000007,172.8,4.000000000000007,172.8
327,1.0,0.56,1.0,-1.0,-125.0,-5.0,-125.0,-5.0,-58.0,-128.0,-58.0,-128.0,48.400000000000006,-128.0,48.400000000000006,-128.0
265,1.0,0.8200000000000001,1.0,-1.0,-125.0,-5.0,-125.0,-5.0,-71.0,-141.0,-71.0,-141.0,84.80000000000001,-141.0,84.80000000000001,-141.0
54,1.0,0.6,1.0,1.0,195.0,-65.0,195.0,-65.0,184.0,114.0,184.0,114.0,184.0,0.0,184.0,0.0
464,-1.0,0.8,1.0,-1.0,-5.0,-125.0,-5.0,-125.0,-140.0,-70.0,-140.0,-70.0,-140.0,82.0,-140.0,82.0
144,-1.0,0.9,1.0,1.0,-65.0,195.0,-65.0,195.0,156.0,226.0,156.0,226.0,-15.0,226.0,-15.0,226.0
382,-1.0,0.66,1.0,-1.0,-5.0,-125.0,-5.0,-125.0,-133.0,-63.0,-133.0,-63.0,-133.0,62.400000000000006,-133.0,62.400000000000006
477,-1.0,0.56,1.0,-1.0,-5.0,-125.0,-5.0,-125.0,-128.0,-58.0,-128.0,-58.0,-128.0,48.400000000000006,-128.0,48.400000000000006
111,1.0,0.74,1.0,1.0,195.0,-65.0,195.0,-65.0,203.60000000000002,133.6,203.60000000000002,133.6,203.60000000000002,-7.0,203.60000000000002,-7.0
380,-1.0,0.62,1.0,-1.0,-5.0,-125.0,-5.0,-125.0,-131.0,-61.0,-131.0,-61.0,-131.0,56.8,-131.0,56.8
298,1.0,0.98,1.0,-1.0,-125.0,-5.0,-125.0,-5.0,-79.0,-149.0,-79.0,-149.0,107.19999999999999,-149.0,107.19999999999999,-149.0
226,-1.0,0.54,1.0,1.0,-65.0,195.0,-65.0,195.0,105.6,175.6,105.6,175.6,2.999999999999993,175.6,2.999999999999993,175.6
118,1.0,0.88,1.0,1.0,195.0,-65.0,195.0,-65.0,223.2,153.2,223.2,153.2,223.2,-14.0,223.2,-14.0
1,1.0,0.54,1.0,1.0,195.0,-65.0,195.0,-65.0,175.6,105.6,175.6,105.6,175.6,2.999999999999993,175.6,2.999999999999993
159,-1.0,0.7,1.0,1.0,-65.0,195.0,-65.0,195.0,128.0,198.0,128.0,198.0,-5.0,198.0,-5.0,198.0
84,1.0,0.7,1.0,1.0,195.0,-65.0,195.0,-65.0,198.0,128.0,198.0,128.0,198.0,-5.0,198.0,-5.0
97,1.0,0.96,1.0,1.0,195.0,-65.0,195.0,-65.0,234.39999999999998,164.39999999999998,234.39999999999998,164.39999999999998,234.39999999999998,-18.000000000000014,234.39999999999998,-18.000000000000014
37,1.0,0.76,1.0,1.0,195.0,-65.0,195.0,-65.0,206.39999999999998,136.4,206.39999999999998,136.4,206.39999999999998,-8.0,206.39999999999998,-8.0
369,1.0,0.9,1.0,-1.0,-125.0,-5.0,-125.0,-5.0,-75.0,-145.0,-75.0,-145.0,96.0,-145.0,96.0,-145.0
205,-1.0,0.62,1.0,1.0,-65.0,195.0,-65.0,195.0,116.8,186.8,116.8,186.8,-1.0,186.8,-1.0,186.8
426,-1.0,0.54,1.0,-1.0,-5.0,-125.0,-5.0,-125.0,-127.0,-57.0,-127.0,-57.0,-127.0,45.60000000000001,-127.0,45.60000000000001
398,-1.0,0.98,1.0,-1.0,-5.0,-125.0,-5.0,-125.0,-149.0,-79.0,-149.0,-79.0,-149.0,107.19999999999999,-149.0,107.19999999999999
121,1.0,0.94,1.0,1.0,195.0,-65.0,195.0,-65.0,231.60000000000002,161.6,231.60000000000002,161.6,231.60000000000002,-17.0,231.60000000000002,-17.0
481,-1.0,0.64,1.0,-1.0,-5.0,-125.0,-5.0,-125.0,-132.0,-62.0,-132.0,-62.0,-132.0,59.60000000000001,-132.0,59.60000000000001
262,1.0,0.76,1.0,-1.0,-125.0,-5.0,-125.0,-5.0,-68.0,-138.0,-68.0,-138.0,76.4,-138.0,76.4,-138.0
433,-1.0,0.6799999999999999,1.0,-1.0,-5.0,-125.0,-5.0,-125.0,-134.0,-64.0,-134.0,-64.0,-134.0,65.19999999999999,-134.0,65.19999999999999
129,-1.0,0.6,1.0,1.0,-65.0,195.0,-65.0,195.0,114.0,184.0,114.0,184.0,0.0,184.0,0.0,184.0
183,-1.0,0.6799999999999999,1.0,1.0,-65.0,195.0,-65.0,195.0,125.19999999999999,195.2,125.19999999999999,195.2,-4.0,195.2,-4.0,195.2
12,1.0,0.76,1.0,1.0,195.0,-65.0,195.0,-65.0,206.39999999999998,136.4,206.39999999999998,136.4,206.39999999999998,-8.0,206.39999999999998,-8.0
487,-1.0,0.76,1.0,-1.0,-5.0,-125.0,-5.0,-125.0,-138.0,-68.0,-138.0,-68.0,-138.0,76.4,-138.0,76.4
9,1.0,0.7,1.0,1.0,195.0,-65.0,195.0,-65.0,198.0,128.0,198.0,128.0,198.0,-5.0,198.0,-5.0
266,1.0,0.8400000000000001,1.0,-1.0,-125.0,-5.0,-125.0,-5.0,-72.0,-142.0,-72.0,-142.0,87.60000000000002,-142.0,87.60000000000002,-142.0
273,1.0,0.98,1.0,-1.0,-125.0,-5.0,-125.0,-5.0,-79.0,-149.0,-79.0,-149.0,107.19999999999999,-149.0,107.19999999999999,-149.0
114,1.0,0.8,1.0,1.0,195.0,-65.0,195.0,-65.0,212.0,142.0,212.0,142.0,212.0,-10.0,212.0,-10.0
332,1.0,0.66,1.0,-1.0,-125.0,-5.0,-125.0,-5.0,-63.0,-133.0,-63.0,-133.0,62.400000000000006,-133.0,62.400000000000006,-133.0
384,-1.0,0.7,1.0,-1.0,-5.0,-125.0,-5.0,-125.0,-135.0,-65.0,-135.0,-65.0,-135.0,68.0,-135.0,68.0
19,1.0,0.9,1.0,1.0,195.0,-65.0,195.0,-65.0,226.0,156.0,226.0,156.0,226.0,-15.0,226.0,-15.0
427,-1.0,0.56,1.0,-1.0,-5.0,-125.0,-5.0,-125.0,-128.0,-58.0,-128.0,-58.0,-128.0,48.400000000000006,-128.0,48.400000000000006
48,1.0,0.98,1.0,1.0,195.0,-65.0,195.0,-65.0,237.2,167.2,237.2,167.2,237.2,-19.0,237.2,-19.0
359,1.0,0.7,1.0,-1.0,-125.0,-5.0,-125.0,-5.0,-65.0,-135.0,-65.0,-135.0,68.0,-135.0,68.0,-135.0
383,-1.0,0.6799999999999999,1.0,-1.0,-5.0,-125.0,-5.0,-125.0,-134.0,-64.0,-134.0,-64.0,-134.0,65.19999999999999,-134.0,65.19999999999999
105,1.0,0.62,1.0,1.0,195.0,-65.0,195.0,-65.0,186.8,116.8,186.8,116.8,186.8,-1.0,186.8,-1.0
495,-1.0,0.9199999999999999,1.0,-1.0,-5.0,-125.0,-5.0,-125.0,-146.0,-76.0,-146.0,-76.0,-146.0,98.79999999999998,-146.0,98.79999999999998
318,1.0,0.88,1.0,-1.0,-125.0,-5.0,-125.0,-5.0,-74.0,-144.0,-74.0,-144.0,93.19999999999999,-144.0,93.19999999999999,-144.0
29,1.0,0.6,1.0,1.0,195.0,-65.0,195.0,-65.0,184.0,114.0,184.0,114.0,184.0,0.0,184.0,0.0
53,1.0,0.58,1.0,1.0,195.0,-65.0,195.0,-65.0,181.2,111.19999999999999,181.2,111.19999999999999,181.2,1.0,181.2,1.0
160,-1.0,0.72,1.0,1.0,-65.0,195.0,-65.0,195.0,130.79999999999998,200.8,130.79999999999998,200.8,-5.999999999999993,200.8,-5.999999999999993,200.8
167,-1.0,0.86,1.0,1.0,-65.0,195.0,-65.0,195.0,150.4,220.39999999999998,150.4,220.39999999999998,-13.0,220.39999999999998,-13.0,220.39999999999998
337,1.0,0.76,1.0,-1.0,-125.0,-5.0,-125.0,-5.0,-68.0,-138.0,-68.0,-138.0,76.4,-138.0,76.4,-138.0
141,-1.0,0.8400000000000001,1.0,1.0,-65.0,195.0,-65.0,195.0,147.60000000000002,217.60000000000002,147.60000000000002,217.60000000000002,-12.0,217.60000000000002,-12.0,217.60000000000002
246,-1.0,0.94,1.0,1.0,-65.0,195.0,-65.0,195.0,161.6,231.60000000000002,161.6,231.60000000000002,-17.0,231.60000000000002,-17.0,231.60000000000002
484,-1.0,0.7,1.0,-1.0,-5.0,-125.0,-5.0,-125.0,-135.0,-65.0,-135.0,-65.0,-135.0,68.0,-135.0,68.0
472,-1.0,0.96,1.0,-1.0,-5.0,-125.0,-5.0,-125.0,-148.0,-78.0,-148.0,-78.0,-148.0,104.4,-148.0,104.4
122,1.0,0.96,1.0,1.0,195.0,-65.0,195.0,-65.0,234.39999999999998,164.39999999999998,234.39999999999998,164.39999999999998,234.39999999999998,-18.000000000000014,234.39999999999998,-18.000000000000014
321,1.0,0.94,1.0,-1.0,-125.0,-5.0,-125.0,-5.0,-77.0,-147.0,-77.0,-147.0,101.6,-147.0,101.6,-147.0
378,-1.0,0.58,1.0,-1.0,-5.0,-125.0,-5.0,-125.0,-129.0,-59.0,-129.0,-59.0,-129.0,51.19999999999999,-129.0,51.19999999999999
267,1.0,0.86,1.0,-1.0,-125.0,-5.0,-125.0,-5.0,-73.0,-143.0,-73.0,-143.0,90.4,-143.0,90.4,-143.0
381,-1.0,0.64,1.0,-1.0,-5.0,-125.0,-5.0,-125.0,-132.0,-62.0,-132.0,-62.0,-132.0,59.60000000000001,-132.0,59.60000000000001
343,1.0,0.88,1.0,-1.0,-125.0,-5.0,-125.0,-5.0,-74.0,-144.0,-74.0,-144.0,93.19999999999999,-144.0,93.19999999999999,-144.0
194,-1.0,0.9,1.0,1.0,-65.0,195.0,-65.0,195.0,156.0,226.0,156.0,226.0,-15.0,226.0,-15.0,226.0
483,-1.0,0.6799999999999999,1.0,-1.0,-5.0,-125.0,-5.0,-125.0,-134.0,-64.0,-134.0,-64.0,-134.0,65.19999999999999,-134.0,65.19999999999999
288,1.0,0.78,1.0,-1.0,-125.0,-5.0,-125.0,-5.0,-69.0,-139.0,-69.0,-139.0,79.20000000000002,-139.0,79.20000000000002,-139.0
98,1.0,0.98,1.0,1.0,195.0,-65.0,195.0,-65.0,237.2,167.2,237.2,167.2,237.2,-19.0,237.2,-19.0
224,-1.0,1.0,1.0,1.0,-65.0,195.0,-65.0,195.0,170.0,240.0,170.0,240.0,-20.0,240.0,-20.0,240.0
124,1.0,1.0,1.0,1.0,195.0,-65.0,195.0,-65.0,240.0,170.0,240.0,170.0,240.0,-20.0,240.0,-20.0
392,-1.0,0.86,1.0,-1.0,-5.0,-125.0,-5.0,-125.0,-143.0,-73.0,-143.0,-73.0,-143.0,90.4,-143.0,90.4
348,1.0,0.98,1.0,-1.0,-125.0,-5.0,-125.0,-5.0,-79.0,-149.0,-79.0,-149.0,107.19999999999999,-149.0,107.19999999999999,-149.0
168,-1.0,0.88,1.0,1.0,-65.0,195.0,-65.0,195.0,153.2,223.2,153.2,223.2,-14.0,223.2,-14.0,223.2
249,-1.0,1.0,1.0,1.0,-65.0,195.0,-65.0,195.0,170.0,240.0,170.0,240.0,-20.0,240.0,-20.0,240.0
206,-1.0,0.64,1.0,1.0,-65.0,195.0,-65.0,195.0,119.6,189.60000000000002,119.6,189.60000000000002,-2.000000000000007,189.60000000000002,-2.000000000000007,189.60000000000002
64,1.0,0.8,1.0,1.0,195.0,-65.0,195.0,-65.0,212.0,142.0,212.0,142.0,212.0,-10.0,212.0,-10.0
67,1.0,0.86,1.0,1.0,195.0,-65.0,195.0,-65.0,220.39999999999998,150.4,220.39999999999998,150.4,220.39999999999998,-13.0,220.39999999999998,-13.0
202,-1.0,0.56,1.0,1.0,-65.0,195.0,-65.0,195.0,108.4,178.4,108.4,178.4,2.0,178.4,2.0,178.4
292,1.0,0.86,1.0,-1.0,-125.0,-5.0,-125.0,-5.0,-73.0,-143.0,-73.0,-143.0,90.4,-143.0,90.4,-143.0
23,1.0,0.98,1.0,1.0,195.0,-65.0,195.0,-65.0,237.2,167.2,237.2,167.2,237.2,-19.0,237.2,-19.0
68,1.0,0.88,1.0,1.0,195.0,-65.0,195.0,-65.0,223.2,153.2,223.2,153.2,223.2,-14.0,223.2,-14.0
421,-1.0,0.94,1.0,-1.0,-5.0,-125.0,-5.0,-125.0,-147.0,-77.0,-147.0,-77.0,-147.0,101.6,-147.0,101.6
268,1.0,0.88,1.0,-1.0,-125.0,-5.0,-125.0,-5.0,-74.0,-144.0,-74.0,-144.0,93.19999999999999,-144.0,93.19999999999999,-144.0
390,-1.0,0.8200000000000001,1.0,-1.0,-5.0,-125.0,-5.0,-125.0,-141.0,-71.0,-141.0,-71.0,-141.0,84.80000000000001,-141.0,84.80000000000001
188,-1.0,0.78,1.0,1.0,-65.0,195.0,-65.0,195.0,139.2,209.2,139.2,209.2,-9.000000000000014,209.2,-9.000000000000014,209.2
195,-1.0,0.9199999999999999,1.0,1.0,-65.0,195.0,-65.0,195.0,158.8,228.8,158.8,228.8,-15.999999999999986,228.8,-15.999999999999986,228.8
406,-1.0,0.64,1.0,-1.0,-5.0,-125.0,-5.0,-125.0,-132.0,-62.0,-132.0,-62.0,-132.0,59.60000000000001,-132.0,59.60000000000001
289,1.0,0.8,1.0,-1.0,-125.0,-5.0,-125.0,-5.0,-70.0,-140.0,-70.0,-140.0,82.0,-140.0,82.0,-140.0
325,1.0,0.52,1.0,-1.0,-125.0,-5.0,-125.0,-5.0,-56.0,-126.0,-56.0,-126.0,42.8,-126.0,42.8,-126.0
113,1.0,0.78,1.0,1.0,195.0,-65.0,195.0,-65.0,209.2,139.2,209.2,139.2,209.2,-9.000000000000014,209.2,-9.000000000000014
229,-1.0,0.6,1.0,1.0,-65.0,195.0,-65.0,195.0,114.0,184.0,114.0,184.0,0.0,184.0,0.0,184.0
21,1.0,0.94,1.0,1.0,195.0,-65.0,195.0,-65.0,231.60000000000002,161.6,231.60000000000002,161.6,231.60000000000002,-17.0,231.60000000000002,-17.0
374,1.0,1.0,1.0,-1.0,-125.0,-5.0,-125.0,-5.0,-80.0,-150.0,-80.0,-150.0,110.0,-150.0,110.0,-150.0
411,-1.0,0.74,1.0,-1.0,-5.0,-125.0,-5.0,-125.0,-137.0,-67.0,-137.0,-67.0,-137.0,73.6,-137.0,73.6
491,-1.0,0.8400000000000001,1.0,-1.0,-5.0,-125.0,-5.0,-125.0,-142.0,-72.0,-142.0,-72.0,-142.0,87.60000000000002,-142.0,87.60000000000002
438,-1.0,0.78,1.0,-1.0,-5.0,-125.0,-5.0,-125.0,-139.0,-69.0,-139.0,-69.0,-139.0,79.20000000000002,-139.0,79.20000000000002
497,-1.0,0.96,1.0,-1.0,-5.0,-125.0,-5.0,-125.0,-148.0,-78.0,-148.0,-78.0,-148.0,104.4,-148.0,104.4
13,1.0,0.78,1.0,1.0,195.0,-65.0,195.0,-65.0,209.2,139.2,209.2,139.2,209.2,-9.000000000000014,209.2,-9.000000000000014
139,-1.0,0.8,1.0,1.0,-65.0,195.0,-65.0,195.0,142.0,212.0,142.0,212.0,-10.0,212.0,-10.0,212.0
